digraph Tree {
node [shape=box, style="rounded", color="black", fontname=helvetica] ;
edge [fontname=helvetica] ;
0 [label="0 <= 0.1\ngini = 0.5\nsamples = 157\nvalue = [116, 126]"] ;
1 [label="1 <= -0.6\ngini = 0.2\nsamples = 79\nvalue = [17, 100]"] ;
0 -> 1 [labeldistance=2.5, labelangle=45, headlabel="True"] ;
2 [label="4 <= -0.8\ngini = 0.4\nsamples = 23\nvalue = [11, 22]"] ;
1 -> 2 ;
3 [label="3 <= -1.3\ngini = 0.2\nsamples = 9\nvalue = [2, 12]"] ;
2 -> 3 ;
4 [label="gini = 0.0\nsamples = 1\nvalue = [1, 0]"] ;
3 -> 4 ;
5 [label="2 <= -1.6\ngini = 0.1\nsamples = 8\nvalue = [1, 12]"] ;
3 -> 5 ;
6 [label="gini = 0.5\nsamples = 2\nvalue = [1, 1]"] ;
5 -> 6 ;
7 [label="gini = 0.0\nsamples = 6\nvalue = [0, 11]"] ;
5 -> 7 ;
8 [label="4 <= 0.3\ngini = 0.5\nsamples = 14\nvalue = [9, 10]"] ;
2 -> 8 ;
9 [label="3 <= 0.9\ngini = 0.5\nsamples = 9\nvalue = [8, 5]"] ;
8 -> 9 ;
10 [label="gini = 0.5\nsamples = 8\nvalue = [6, 5]"] ;
9 -> 10 ;
11 [label="gini = 0.0\nsamples = 1\nvalue = [2, 0]"] ;
9 -> 11 ;
12 [label="1 <= -1.8\ngini = 0.3\nsamples = 5\nvalue = [1, 5]"] ;
8 -> 12 ;
13 [label="gini = 0.5\nsamples = 2\nvalue = [1, 1]"] ;
12 -> 13 ;
14 [label="gini = 0.0\nsamples = 3\nvalue = [0, 4]"] ;
12 -> 14 ;
15 [label="4 <= -1.7\ngini = 0.1\nsamples = 56\nvalue = [6, 78]"] ;
1 -> 15 ;
16 [label="2 <= -0.6\ngini = 0.5\nsamples = 9\nvalue = [5, 9]"] ;
15 -> 16 ;
17 [label="gini = 0.0\nsamples = 3\nvalue = [0, 5]"] ;
16 -> 17 ;
18 [label="3 <= 0.0\ngini = 0.5\nsamples = 6\nvalue = [5, 4]"] ;
16 -> 18 ;
19 [label="gini = 0.3\nsamples = 4\nvalue = [1, 4]"] ;
18 -> 19 ;
20 [label="gini = 0.0\nsamples = 2\nvalue = [4, 0]"] ;
18 -> 20 ;
21 [label="2 <= 1.5\ngini = 0.0\nsamples = 47\nvalue = [1, 69]"] ;
15 -> 21 ;
22 [label="gini = 0.0\nsamples = 44\nvalue = [0, 66]"] ;
21 -> 22 ;
23 [label="0 <= -0.6\ngini = 0.4\nsamples = 3\nvalue = [1, 3]"] ;
21 -> 23 ;
24 [label="gini = 0.0\nsamples = 2\nvalue = [0, 3]"] ;
23 -> 24 ;
25 [label="gini = 0.0\nsamples = 1\nvalue = [1, 0]"] ;
23 -> 25 ;
26 [label="0 <= 2.2\ngini = 0.3\nsamples = 78\nvalue = [99, 26]"] ;
0 -> 26 [labeldistance=2.5, labelangle=-45, headlabel="False"] ;
27 [label="2 <= 1.8\ngini = 0.5\nsamples = 42\nvalue = [43, 24]"] ;
26 -> 27 ;
28 [label="4 <= -0.7\ngini = 0.4\nsamples = 37\nvalue = [43, 15]"] ;
27 -> 28 ;
29 [label="4 <= -1.3\ngini = 0.3\nsamples = 3\nvalue = [1, 4]"] ;
28 -> 29 ;
30 [label="gini = 0.0\nsamples = 1\nvalue = [0, 2]"] ;
29 -> 30 ;
31 [label="gini = 0.4\nsamples = 2\nvalue = [1, 2]"] ;
29 -> 31 ;
32 [label="4 <= 1.8\ngini = 0.3\nsamples = 34\nvalue = [42, 11]"] ;
28 -> 32 ;
33 [label="gini = 0.2\nsamples = 29\nvalue = [39, 6]"] ;
32 -> 33 ;
34 [label="gini = 0.5\nsamples = 5\nvalue = [3, 5]"] ;
32 -> 34 ;
35 [label="gini = 0.0\nsamples = 5\nvalue = [0, 9]"] ;
27 -> 35 ;
36 [label="2 <= 2.7\ngini = 0.1\nsamples = 36\nvalue = [56, 2]"] ;
26 -> 36 ;
37 [label="3 <= -0.4\ngini = 0.0\nsamples = 34\nvalue = [55, 1]"] ;
36 -> 37 ;
38 [label="gini = 0.0\nsamples = 22\nvalue = [37, 0]"] ;
37 -> 38 ;
39 [label="3 <= -0.3\ngini = 0.1\nsamples = 12\nvalue = [18, 1]"] ;
37 -> 39 ;
40 [label="gini = 0.0\nsamples = 1\nvalue = [0, 1]"] ;
39 -> 40 ;
41 [label="gini = 0.0\nsamples = 11\nvalue = [18, 0]"] ;
39 -> 41 ;
42 [label="1 <= -0.2\ngini = 0.5\nsamples = 2\nvalue = [1, 1]"] ;
36 -> 42 ;
43 [label="gini = 0.0\nsamples = 1\nvalue = [0, 1]"] ;
42 -> 43 ;
44 [label="gini = 0.0\nsamples = 1\nvalue = [1, 0]"] ;
42 -> 44 ;
}