digraph Tree {
node [shape=box, style="filled, rounded", color="black", fontname=helvetica] ;
edge [fontname=helvetica] ;
0 [label="0 <= 0.1\ngini = 0.5\nsamples = 100.0%\nvalue = [0.48, 0.52]\nclass = disease", fillcolor="#399de514"] ;
1 [label="1 <= -0.65\n0.25\n50.3%\n[0.15, 0.85]\ndisease", fillcolor="#399de5d4"] ;
0 -> 1 [labeldistance=2.5, labelangle=45, headlabel="True"] ;
2 [label="4 <= -0.8\n0.44\n14.6%\n[0.33, 0.67]\ndisease", fillcolor="#399de57f"] ;
1 -> 2 ;
3 [label="3 <= -1.26\n0.24\n5.7%\n[0.14, 0.86]\ndisease", fillcolor="#399de5d4"] ;
2 -> 3 ;
4 [label="0.0\n0.6%\n[1.0, 0.0]\nno disease", fillcolor="#e58139ff"] ;
3 -> 4 ;
5 [label="2 <= -1.64\n0.14\n5.1%\n[0.08, 0.92]\ndisease", fillcolor="#399de5ea"] ;
3 -> 5 ;
6 [label="0.5\n1.3%\n[0.5, 0.5]\nno disease", fillcolor="#e5813900"] ;
5 -> 6 ;
7 [label="0.0\n3.8%\n[0.0, 1.0]\ndisease", fillcolor="#399de5ff"] ;
5 -> 7 ;
8 [label="4 <= 0.28\n0.5\n8.9%\n[0.47, 0.53]\ndisease", fillcolor="#399de519"] ;
2 -> 8 ;
9 [label="3 <= 0.91\n0.47\n5.7%\n[0.62, 0.38]\nno disease", fillcolor="#e5813960"] ;
8 -> 9 ;
10 [label="0.5\n5.1%\n[0.55, 0.45]\nno disease", fillcolor="#e581392a"] ;
9 -> 10 ;
11 [label="0.0\n0.6%\n[1.0, 0.0]\nno disease", fillcolor="#e58139ff"] ;
9 -> 11 ;
12 [label="1 <= -1.77\n0.28\n3.2%\n[0.17, 0.83]\ndisease", fillcolor="#399de5cc"] ;
8 -> 12 ;
13 [label="0.5\n1.3%\n[0.5, 0.5]\nno disease", fillcolor="#e5813900"] ;
12 -> 13 ;
14 [label="0.0\n1.9%\n[0.0, 1.0]\ndisease", fillcolor="#399de5ff"] ;
12 -> 14 ;
15 [label="4 <= -1.67\n0.13\n35.7%\n[0.07, 0.93]\ndisease", fillcolor="#399de5eb"] ;
1 -> 15 ;
16 [label="2 <= -0.65\n0.46\n5.7%\n[0.36, 0.64]\ndisease", fillcolor="#399de571"] ;
15 -> 16 ;
17 [label="0.0\n1.9%\n[0.0, 1.0]\ndisease", fillcolor="#399de5ff"] ;
16 -> 17 ;
18 [label="3 <= 0.03\n0.49\n3.8%\n[0.56, 0.44]\nno disease", fillcolor="#e5813933"] ;
16 -> 18 ;
19 [label="0.32\n2.5%\n[0.2, 0.8]\ndisease", fillcolor="#399de5bf"] ;
18 -> 19 ;
20 [label="0.0\n1.3%\n[1.0, 0.0]\nno disease", fillcolor="#e58139ff"] ;
18 -> 20 ;
21 [label="2 <= 1.47\n0.03\n29.9%\n[0.01, 0.99]\ndisease", fillcolor="#399de5fb"] ;
15 -> 21 ;
22 [label="0.0\n28.0%\n[0.0, 1.0]\ndisease", fillcolor="#399de5ff"] ;
21 -> 22 ;
23 [label="0 <= -0.6\n0.38\n1.9%\n[0.25, 0.75]\ndisease", fillcolor="#399de5aa"] ;
21 -> 23 ;
24 [label="0.0\n1.3%\n[0.0, 1.0]\ndisease", fillcolor="#399de5ff"] ;
23 -> 24 ;
25 [label="0.0\n0.6%\n[1.0, 0.0]\nno disease", fillcolor="#e58139ff"] ;
23 -> 25 ;
26 [label="0 <= 2.16\n0.33\n49.7%\n[0.79, 0.21]\nno disease", fillcolor="#e58139bc"] ;
0 -> 26 [labeldistance=2.5, labelangle=-45, headlabel="False"] ;
27 [label="2 <= 1.75\n0.46\n26.8%\n[0.64, 0.36]\nno disease", fillcolor="#e5813971"] ;
26 -> 27 ;
28 [label="4 <= -0.72\n0.38\n23.6%\n[0.74, 0.26]\nno disease", fillcolor="#e58139a6"] ;
27 -> 28 ;
29 [label="4 <= -1.31\n0.32\n1.9%\n[0.2, 0.8]\ndisease", fillcolor="#399de5bf"] ;
28 -> 29 ;
30 [label="0.0\n0.6%\n[0.0, 1.0]\ndisease", fillcolor="#399de5ff"] ;
29 -> 30 ;
31 [label="0.44\n1.3%\n[0.33, 0.67]\ndisease", fillcolor="#399de57f"] ;
29 -> 31 ;
32 [label="4 <= 1.81\n0.33\n21.7%\n[0.79, 0.21]\nno disease", fillcolor="#e58139bc"] ;
28 -> 32 ;
33 [label="0.23\n18.5%\n[0.87, 0.13]\nno disease", fillcolor="#e58139d8"] ;
32 -> 33 ;
34 [label="0.47\n3.2%\n[0.38, 0.62]\ndisease", fillcolor="#399de566"] ;
32 -> 34 ;
35 [label="0.0\n3.2%\n[0.0, 1.0]\ndisease", fillcolor="#399de5ff"] ;
27 -> 35 ;
36 [label="2 <= 2.72\n0.07\n22.9%\n[0.97, 0.03]\nno disease", fillcolor="#e58139f6"] ;
26 -> 36 ;
37 [label="3 <= -0.43\n0.04\n21.7%\n[0.98, 0.02]\nno disease", fillcolor="#e58139fa"] ;
36 -> 37 ;
38 [label="0.0\n14.0%\n[1.0, 0.0]\nno disease", fillcolor="#e58139ff"] ;
37 -> 38 ;
39 [label="3 <= -0.33\n0.1\n7.6%\n[0.95, 0.05]\nno disease", fillcolor="#e58139f1"] ;
37 -> 39 ;
40 [label="0.0\n0.6%\n[0.0, 1.0]\ndisease", fillcolor="#399de5ff"] ;
39 -> 40 ;
41 [label="0.0\n7.0%\n[1.0, 0.0]\nno disease", fillcolor="#e58139ff"] ;
39 -> 41 ;
42 [label="1 <= -0.19\n0.5\n1.3%\n[0.5, 0.5]\nno disease", fillcolor="#e5813900"] ;
36 -> 42 ;
43 [label="0.0\n0.6%\n[0.0, 1.0]\ndisease", fillcolor="#399de5ff"] ;
42 -> 43 ;
44 [label="0.0\n0.6%\n[1.0, 0.0]\nno disease", fillcolor="#e58139ff"] ;
42 -> 44 ;
}